digraph Tree {
node [shape=box, style="filled, rounded", color="black", fontname=helvetica] ;
edge [fontname=helvetica] ;
0 [label="concluir_curso_nessa_instituicao <= 1.811\ngini = 0.27\nsamples = 473\nvalue = [76, 397]\nclass = ativo", fillcolor="#399de5ce"] ;
1 [label="afinidade_humanas <= 2.541\ngini = 0.499\nsamples = 56\nvalue = [27, 29]\nclass = ativo", fillcolor="#399de512"] ;
0 -> 1 [labeldistance=2.5, labelangle=45, headlabel="True"] ;
2 [label="motivacao_curso <= 0.883\ngini = 0.455\nsamples = 40\nvalue = [14, 26]\nclass = ativo", fillcolor="#399de576"] ;
1 -> 2 ;
3 [label="gini = 0.0\nsamples = 2\nvalue = [2, 0]\nclass = evadido", fillcolor="#e58139ff"] ;
2 -> 3 ;
4 [label="afinidade_natureza <= 1.213\ngini = 0.432\nsamples = 38\nvalue = [12, 26]\nclass = ativo", fillcolor="#399de589"] ;
2 -> 4 ;
5 [label="(...)", fillcolor="#C0C0C0"] ;
4 -> 5 ;
20 [label="(...)", fillcolor="#C0C0C0"] ;
4 -> 20 ;
49 [label="concluir_curso_nessa_instituicao <= 0.457\ngini = 0.305\nsamples = 16\nvalue = [13, 3]\nclass = evadido", fillcolor="#e58139c4"] ;
1 -> 49 ;
50 [label="gini = 0.0\nsamples = 7\nvalue = [7, 0]\nclass = evadido", fillcolor="#e58139ff"] ;
49 -> 50 ;
51 [label="afinidade_natureza <= 2.304\ngini = 0.444\nsamples = 9\nvalue = [6, 3]\nclass = evadido", fillcolor="#e581397f"] ;
49 -> 51 ;
52 [label="(...)", fillcolor="#C0C0C0"] ;
51 -> 52 ;
61 [label="(...)", fillcolor="#C0C0C0"] ;
51 -> 61 ;
62 [label="motivacao_curso <= 0.51\ngini = 0.207\nsamples = 417\nvalue = [49, 368]\nclass = ativo", fillcolor="#399de5dd"] ;
0 -> 62 [labeldistance=2.5, labelangle=-45, headlabel="False"] ;
63 [label="gini = 0.0\nsamples = 4\nvalue = [0, 4]\nclass = ativo", fillcolor="#399de5ff"] ;
62 -> 63 ;
64 [label="tarefa_durante_curso <= 2.04\ngini = 0.209\nsamples = 413\nvalue = [49, 364]\nclass = ativo", fillcolor="#399de5dd"] ;
62 -> 64 ;
65 [label="afinidade_linguagens <= 2.068\ngini = 0.215\nsamples = 392\nvalue = [48, 344]\nclass = ativo", fillcolor="#399de5db"] ;
64 -> 65 ;
66 [label="(...)", fillcolor="#C0C0C0"] ;
65 -> 66 ;
291 [label="(...)", fillcolor="#C0C0C0"] ;
65 -> 291 ;
338 [label="concluir_curso_nessa_instituicao <= 2.212\ngini = 0.091\nsamples = 21\nvalue = [1, 20]\nclass = ativo", fillcolor="#399de5f2"] ;
64 -> 338 ;
339 [label="(...)", fillcolor="#C0C0C0"] ;
338 -> 339 ;
340 [label="(...)", fillcolor="#C0C0C0"] ;
338 -> 340 ;
}